digraph Tree {
node [shape=box] ;
0 [label="Age <= 33.5\ngini = 0.27\nsamples = 4410\nvalue = [3699, 711]"] ;
1 [label="Age <= 21.5\ngini = 0.371\nsamples = 1722\nvalue = [1299, 423]"] ;
0 -> 1 [labeldistance=2.5, labelangle=45, headlabel="True"] ;
2 [label="MonthlyIncome <= 182405.0\ngini = 0.497\nsamples = 123\nvalue = [57, 66]"] ;
1 -> 2 ;
3 [label="MonthlyIncome <= 50545.0\ngini = 0.492\nsamples = 117\nvalue = [51, 66]"] ;
2 -> 3 ;
4 [label="MonthlyIncome <= 42000.0\ngini = 0.492\nsamples = 48\nvalue = [27, 21]"] ;
3 -> 4 ;
5 [label="MonthlyIncome <= 23140.0\ngini = 0.5\nsamples = 42\nvalue = [21, 21]"] ;
4 -> 5 ;
6 [label="gini = 0.0\nsamples = 3\nvalue = [3, 0]"] ;
5 -> 6 ;
7 [label="gini = 0.497\nsamples = 39\nvalue = [18, 21]"] ;
5 -> 7 ;
8 [label="gini = 0.0\nsamples = 6\nvalue = [6, 0]"] ;
4 -> 8 ;
9 [label="MonthlyIncome <= 65420.0\ngini = 0.454\nsamples = 69\nvalue = [24, 45]"] ;
3 -> 9 ;
10 [label="gini = 0.0\nsamples = 18\nvalue = [0, 18]"] ;
9 -> 10 ;
11 [label="MonthlyIncome <= 90610.0\ngini = 0.498\nsamples = 51\nvalue = [24, 27]"] ;
9 -> 11 ;
12 [label="gini = 0.32\nsamples = 15\nvalue = [12, 3]"] ;
11 -> 12 ;
13 [label="gini = 0.444\nsamples = 36\nvalue = [12, 24]"] ;
11 -> 13 ;
14 [label="gini = 0.0\nsamples = 6\nvalue = [6, 0]"] ;
2 -> 14 ;
15 [label="MonthlyIncome <= 88380.0\ngini = 0.347\nsamples = 1599\nvalue = [1242, 357]"] ;
1 -> 15 ;
16 [label="MonthlyIncome <= 67110.0\ngini = 0.367\nsamples = 1227\nvalue = [930, 297]"] ;
15 -> 16 ;
17 [label="Age <= 23.5\ngini = 0.352\nsamples = 1107\nvalue = [855, 252]"] ;
16 -> 17 ;
18 [label="MonthlyIncome <= 25940.0\ngini = 0.484\nsamples = 51\nvalue = [30, 21]"] ;
17 -> 18 ;
19 [label="gini = 0.0\nsamples = 9\nvalue = [9, 0]"] ;
18 -> 19 ;
20 [label="gini = 0.5\nsamples = 42\nvalue = [21, 21]"] ;
18 -> 20 ;
21 [label="MonthlyIncome <= 29065.0\ngini = 0.342\nsamples = 1056\nvalue = [825, 231]"] ;
17 -> 21 ;
22 [label="gini = 0.403\nsamples = 408\nvalue = [294, 114]"] ;
21 -> 22 ;
23 [label="gini = 0.296\nsamples = 648\nvalue = [531, 117]"] ;
21 -> 23 ;
24 [label="MonthlyIncome <= 72930.0\ngini = 0.469\nsamples = 120\nvalue = [75, 45]"] ;
16 -> 24 ;
25 [label="Age <= 28.5\ngini = 0.486\nsamples = 36\nvalue = [15, 21]"] ;
24 -> 25 ;
26 [label="gini = 0.32\nsamples = 15\nvalue = [12, 3]"] ;
25 -> 26 ;
27 [label="gini = 0.245\nsamples = 21\nvalue = [3, 18]"] ;
25 -> 27 ;
28 [label="Age <= 27.0\ngini = 0.408\nsamples = 84\nvalue = [60, 24]"] ;
24 -> 28 ;
29 [label="gini = 0.5\nsamples = 36\nvalue = [18, 18]"] ;
28 -> 29 ;
30 [label="gini = 0.219\nsamples = 48\nvalue = [42, 6]"] ;
28 -> 30 ;
31 [label="MonthlyIncome <= 100405.0\ngini = 0.271\nsamples = 372\nvalue = [312, 60]"] ;
15 -> 31 ;
32 [label="Age <= 31.5\ngini = 0.087\nsamples = 66\nvalue = [63, 3]"] ;
31 -> 32 ;
33 [label="gini = 0.0\nsamples = 48\nvalue = [48, 0]"] ;
32 -> 33 ;
34 [label="MonthlyIncome <= 95745.0\ngini = 0.278\nsamples = 18\nvalue = [15, 3]"] ;
32 -> 34 ;
35 [label="gini = 0.0\nsamples = 9\nvalue = [9, 0]"] ;
34 -> 35 ;
36 [label="gini = 0.444\nsamples = 9\nvalue = [6, 3]"] ;
34 -> 36 ;
37 [label="Age <= 32.5\ngini = 0.303\nsamples = 306\nvalue = [249, 57]"] ;
31 -> 37 ;
38 [label="MonthlyIncome <= 102485.0\ngini = 0.323\nsamples = 282\nvalue = [225, 57]"] ;
37 -> 38 ;
39 [label="gini = 0.48\nsamples = 15\nvalue = [9, 6]"] ;
38 -> 39 ;
40 [label="gini = 0.309\nsamples = 267\nvalue = [216, 51]"] ;
38 -> 40 ;
41 [label="gini = 0.0\nsamples = 24\nvalue = [24, 0]"] ;
37 -> 41 ;
42 [label="MonthlyIncome <= 10300.0\ngini = 0.191\nsamples = 2688\nvalue = [2400, 288]"] ;
0 -> 42 [labeldistance=2.5, labelangle=-45, headlabel="False"] ;
43 [label="gini = 0.0\nsamples = 3\nvalue = [0, 3]"] ;
42 -> 43 ;
44 [label="MonthlyIncome <= 67975.0\ngini = 0.19\nsamples = 2685\nvalue = [2400, 285]"] ;
42 -> 44 ;
45 [label="MonthlyIncome <= 67450.0\ngini = 0.211\nsamples = 1851\nvalue = [1629, 222]"] ;
44 -> 45 ;
46 [label="MonthlyIncome <= 54700.0\ngini = 0.207\nsamples = 1842\nvalue = [1626, 216]"] ;
45 -> 46 ;
47 [label="MonthlyIncome <= 50155.0\ngini = 0.187\nsamples = 1527\nvalue = [1368, 159]"] ;
46 -> 47 ;
48 [label="gini = 0.204\nsamples = 1353\nvalue = [1197, 156]"] ;
47 -> 48 ;
49 [label="gini = 0.034\nsamples = 174\nvalue = [171, 3]"] ;
47 -> 49 ;
50 [label="MonthlyIncome <= 56605.0\ngini = 0.296\nsamples = 315\nvalue = [258, 57]"] ;
46 -> 50 ;
51 [label="gini = 0.48\nsamples = 60\nvalue = [36, 24]"] ;
50 -> 51 ;
52 [label="gini = 0.225\nsamples = 255\nvalue = [222, 33]"] ;
50 -> 52 ;
53 [label="Age <= 41.0\ngini = 0.444\nsamples = 9\nvalue = [3, 6]"] ;
45 -> 53 ;
54 [label="gini = 0.0\nsamples = 6\nvalue = [0, 6]"] ;
53 -> 54 ;
55 [label="gini = 0.0\nsamples = 3\nvalue = [3, 0]"] ;
53 -> 55 ;
56 [label="MonthlyIncome <= 134975.0\ngini = 0.14\nsamples = 834\nvalue = [771, 63]"] ;
44 -> 56 ;
57 [label="MonthlyIncome <= 108930.0\ngini = 0.104\nsamples = 543\nvalue = [513, 30]"] ;
56 -> 57 ;
58 [label="MonthlyIncome <= 108690.0\ngini = 0.128\nsamples = 438\nvalue = [408, 30]"] ;
57 -> 58 ;
59 [label="gini = 0.116\nsamples = 435\nvalue = [408, 27]"] ;
58 -> 59 ;
60 [label="gini = 0.0\nsamples = 3\nvalue = [0, 3]"] ;
58 -> 60 ;
61 [label="gini = 0.0\nsamples = 105\nvalue = [105, 0]"] ;
57 -> 61 ;
62 [label="MonthlyIncome <= 135010.0\ngini = 0.201\nsamples = 291\nvalue = [258, 33]"] ;
56 -> 62 ;
63 [label="gini = 0.0\nsamples = 3\nvalue = [0, 3]"] ;
62 -> 63 ;
64 [label="Age <= 46.5\ngini = 0.187\nsamples = 288\nvalue = [258, 30]"] ;
62 -> 64 ;
65 [label="gini = 0.126\nsamples = 222\nvalue = [207, 15]"] ;
64 -> 65 ;
66 [label="gini = 0.351\nsamples = 66\nvalue = [51, 15]"] ;
64 -> 66 ;
}